9 100
the -0.0811 0.5145 0.0368 0.0544 -0.0662 0.2121 0.1636 -0.1011 0.0607 -0.1858 -0.1965 -0.0595 0.0703 -0.1013 0.3130 -0.1717 0.0847 -0.1222 0.1024 0.0753 -0.1384 0.0435 -0.0371 0.1932 -0.1226 -0.2227 -0.1530 -0.2890 0.2371 0.2699 0.2693 -0.1666 0.0240 0.1053 -0.1475 -0.3232 0.0236 -0.2056 0.2847 -0.2817 0.1197 0.0314 -0.1215 0.0782 -0.2850 -0.1316 -0.0844 0.1483 -0.2192 -0.0462 -0.2151 0.0582 0.0372 0.0127 -0.3074 -0.1582 -0.1393 0.0361 -0.2519 -0.0305 -0.1532 -0.0286 -0.0955 0.3037 0.5632 -0.1120 -0.0319 -0.2223 -0.2612 -0.2254 -0.1593 0.1807 0.1205 0.3695 -0.2652 -0.0490 -0.2556 0.0130 -0.0898 0.0322 0.0021 -0.2692 0.3129 0.0179 0.3913 0.5415 -0.0049 0.0884 0.1605 0.0878 0.0004 0.1465 0.1872 0.0521 -0.1492 -0.0882 0.1696 0.1894 -0.0866 0.1184
in 0.1245 0.4200 0.2936 0.0924 -0.0669 0.0252 0.1407 -0.0729 0.0680 -0.2951 -0.2720 0.0785 0.0780 0.0248 0.0427 -0.1497 0.1013 -0.0257 0.0364 0.2647 0.0330 0.1047 0.0382 0.0138 -0.0162 -0.0733 0.0960 -0.2090 0.0561 0.1030 0.2898 -0.1914 -0.0927 0.1237 -0.0023 -0.4792 0.0523 -0.0819 0.3551 -0.2274 0.3301 0.0547 -0.1707 0.2304 -0.2599 -0.1389 -0.0106 0.1921 -0.3615 0.0077 -0.2439 0.1056 -0.0010 -0.2522 -0.2321 -0.1604 -0.2652 -0.0134 -0.3000 0.1215 0.0737 0.0215 -0.1647 0.2799 0.5886 -0.0189 -0.1250 -0.2438 -0.1621 -0.3960 -0.1078 0.2162 -0.1173 0.6267 -0.0788 0.0086 -0.1317 0.1440 -0.2035 -0.0742 -0.0536 -0.2773 0.1026 0.0356 0.3384 0.4606 -0.1893 0.0142 0.2269 0.1136 0.0962 0.1648 0.1065 0.0051 -0.1777 -0.0971 0.3434 0.2423 -0.1432 -0.1808
of 0.0018 0.3950 0.0662 0.1279 -0.2606 0.3275 -0.0161 -0.1740 0.0530 -0.1168 -0.1781 0.0897 0.0423 -0.1886 0.2358 -0.1118 0.1510 -0.2601 0.0367 -0.0689 -0.1016 0.0333 0.0290 0.1104 -0.3067 -0.2721 -0.1113 -0.2921 0.4445 0.1993 0.2558 -0.1089 0.0121 0.0870 -0.2314 -0.2405 -0.0331 -0.5395 0.1571 -0.3647 0.1048 0.0985 -0.1880 -0.0555 -0.0523 -0.0162 -0.0134 0.0990 -0.1943 0.1087 -0.3270 0.0789 -0.0764 0.1340 -0.2139 -0.1241 -0.3107 -0.2037 -0.3198 0.0157 0.0148 -0.0511 -0.1739 0.4170 0.6791 -0.1775 -0.1529 -0.1850 -0.2302 -0.3126 -0.0604 0.2185 0.0143 0.5491 -0.1606 0.0136 -0.2309 0.1908 -0.2026 0.0611 -0.1822 -0.3973 0.2603 0.1247 0.4455 0.4626 -0.0074 -0.0384 0.1773 0.1086 0.1534 0.2286 0.1497 -0.0698 -0.0397 -0.0486 0.0400 0.1595 -0.0070 0.2451
a -0.1433 0.4563 0.0432 0.2349 -0.2987 0.0416 0.0030 -0.0698 -0.0150 -0.1932 -0.0465 -0.0910 0.2336 -0.1313 0.2681 -0.0743 0.1192 -0.0902 -0.1458 0.2554 0.0500 -0.0215 -0.2235 0.3174 -0.0591 -0.2207 -0.2203 -0.2378 0.0418 0.3202 0.2689 -0.2710 -0.0955 0.2005 -0.1985 -0.3306 -0.2077 -0.2333 0.1841 -0.2972 0.0294 -0.0136 -0.0701 0.1860 -0.1163 0.1043 0.0794 0.1794 -0.3520 0.0179 -0.3910 0.0755 0.0074 0.0377 -0.1803 -0.0884 -0.2182 0.0964 -0.1289 0.2162 -0.3919 -0.0599 -0.2586 0.0642 0.4901 0.0188 -0.1292 -0.3284 -0.0449 -0.2160 0.0986 0.3132 0.1201 0.3162 -0.2393 0.1444 -0.2775 0.2539 -0.0494 0.1743 -0.0795 -0.1996 0.2118 -0.2815 0.3230 0.4166 0.1315 0.2142 -0.1657 -0.0734 -0.0965 0.0446 0.1554 -0.0070 -0.0130 -0.3514 0.1540 0.2946 -0.3259 0.0810
biology 0.1027 0.5111 -0.0605 0.3551 0.4669 0.3271 0.3947 0.4165 0.1383 -0.3629 -0.0656 -0.2038 -0.5166 -0.0017 -0.0730 -0.3543 0.1318 -0.2284 0.2883 -0.2052 0.1611 0.1363 -0.4200 0.1054 0.4313 -0.6201 0.7178 -0.7121 0.7847 0.1800 0.4157 0.1339 0.1857 0.4194 0.1122 0.0244 -0.3731 -0.8334 0.5954 -0.2043 -0.0279 -0.0127 0.0498 0.1890 0.4671 0.1838 -0.1822 0.1847 0.0680 -0.1169 -0.5870 0.0582 -0.8574 0.2880 0.7409 0.1664 0.4150 -0.1761 -0.1477 0.8102 0.3450 -0.0280 -0.7452 0.0758 0.9311 -0.4890 -0.8020 -0.1559 -0.6557 -0.8446 -0.1113 -0.2197 -0.4706 0.4312 -0.1738 -1.0478 -0.0552 0.4676 -0.1233 -0.2055 -0.3204 0.1064 0.0618 -1.0421 0.0097 0.6438 0.0704 0.3998 0.6835 0.4555 -0.1523 -0.0289 -0.6614 -0.5556 -0.1294 -0.1056 0.3726 -0.0445 -0.2353 0.0301
ENTITY/Biology 0.8864 -0.0695 0.3951 0.6465 0.8211 1.0222 0.0599 1.6500 0.2432 -0.9182 0.6058 0.6629 -0.2213 -0.3379 0.3063 -1.1584 -0.3895 -0.3738 0.2359 -0.4143 0.8068 -0.3323 -0.9371 0.6370 0.7479 0.4555 0.5004 -0.0869 1.1276 1.6261 0.8635 -0.0686 0.0188 0.8428 0.2378 0.8654 -0.6094 -0.8376 1.0523 -0.8467 0.3568 0.3116 -0.3045 0.3716 1.6862 0.4292 0.0058 0.5335 0.5744 -0.1844 0.3266 -0.4425 -1.0905 -0.1084 0.7009 0.5878 0.4482 -0.2458 -0.0503 1.3412 0.2086 0.7549 -1.5532 -0.3739 1.7572 -1.2940 -1.4601 -0.5592 -1.7874 -1.6867 -0.2013 -0.0772 -0.5558 0.6957 -0.1672 -2.4681 -0.1720 -0.5687 -0.8482 -0.7933 -0.8219 0.3805 -1.5026 -0.1232 -0.1827 0.4571 -0.0182 0.9350 1.0454 1.3172 0.1752 -0.3904 -1.2751 -0.8481 -0.8281 -0.1649 0.7942 0.3376 -0.0132 0.2218
ENTITY/Biotechnology -0.0331 0.3983 0.1324 0.0703 0.3052 0.4035 -0.3145 0.4165 -0.1940 0.0928 0.4698 -0.3033 -0.9232 -0.4469 0.3861 -0.4463 -0.0602 0.0466 0.1504 -0.5675 0.3334 0.3013 -0.0072 -0.7377 0.0658 0.5520 1.0238 -1.0743 1.0520 0.3910 0.1098 0.0903 0.8579 0.8028 0.0483 -0.3160 -0.3630 -0.9151 0.4858 -1.1217 0.0562 -0.9108 -0.5518 -0.2294 0.5806 0.0038 0.5130 0.0761 -0.6291 0.1635 -0.5622 0.7601 -0.6355 -0.9035 0.6598 0.1758 0.8314 0.2331 -0.1352 0.2978 0.2806 -0.1055 -0.8953 0.9261 0.7892 -0.2016 -1.5059 -0.5692 -0.7311 -0.8415 -0.7745 -0.9654 -1.2073 0.6526 0.2283 -1.1152 0.4768 0.4431 -0.5096 -0.3887 -0.7658 -0.9392 0.6546 -0.5527 -0.1365 0.0528 0.6131 0.5565 1.1088 0.4385 0.1235 -0.4085 -0.1338 -0.8616 0.4425 -0.5150 0.0698 0.0208 -0.4022 -0.0193
biotechnology -0.0324 0.4596 -0.1130 0.0048 0.1859 0.1256 -0.0600 0.3986 0.1304 -0.0950 0.2364 -0.1743 -0.6306 -0.1854 0.2818 -0.2575 0.1270 -0.1454 -0.0317 -0.1841 0.2602 0.3118 -0.1418 -0.5480 0.2596 -0.1154 0.5613 -0.9662 0.9854 0.2724 0.0720 -0.2242 0.6193 0.7536 0.1121 -0.6393 -0.1985 -0.7347 0.3408 -0.6454 -0.1460 -0.6540 -0.5335 -0.0252 0.3389 -0.1003 0.2420 0.0376 -0.3487 0.2599 -0.7143 0.8390 -0.4447 -0.3223 0.5976 0.1724 0.8894 0.1186 -0.2131 0.5719 0.1174 -0.1694 -0.6673 0.4839 0.5276 -0.3495 -1.0129 -0.5145 -0.2878 -0.8447 -0.5983 -0.1246 -0.7113 0.4582 -0.0587 -0.6750 0.2063 0.5213 -0.2870 -0.0919 -0.3373 -0.6004 0.7186 -0.5225 -0.2850 0.2688 0.3779 0.2091 0.8196 0.3517 -0.0749 0.0075 -0.3895 -0.7359 0.0162 -0.1227 0.0753 -0.2307 -0.3069 -0.2340
ENTITY/Barack_Obama -0.1721 0.0684 -0.2211 0.1863 -0.1688 -1.0273 -0.1740 0.6513 -1.1579 -0.0112 -0.6326 -0.3631 1.8984 -1.0302 -0.6003 -0.7805 0.2522 -0.2766 -0.5108 0.1284 0.6357 0.0813 -1.2717 0.4211 -0.2053 0.0983 0.1355 -0.5775 0.2980 1.4131 -0.7368 -1.0152 -0.1170 1.2874 -0.0292 -0.2952 0.1438 0.3080 1.4485 0.1731 0.0015 -0.8506 -0.1724 -0.7688 -0.9834 0.3240 -0.6491 0.3739 -0.3171 0.3900 0.0071 0.4870 0.8888 -0.8458 0.4387 0.4068 -1.6622 -0.1396 -0.7491 -0.4602 1.0253 0.6186 -1.0265 0.0113 1.4749 -1.0670 -1.4507 0.0928 0.6067 0.0567 0.0584 0.0245 0.3227 -0.4692 -0.6337 -0.5821 0.9490 -0.2408 -1.0809 -0.5606 0.6333 -0.9557 0.2823 -0.2635 0.0292 -0.0784 0.2210 0.3730 0.1020 -0.2814 0.6082 0.4093 0.2209 -0.3761 0.1763 0.8166 0.9899 0.6983 1.3987 0.8249